svm_type c_svc
kernel_type rbf
gamma 0.16666666666666666
nr_class 2
total_sv 890
rho 1.7505238478729424
label 1 0
nr_sv 444 446
SV
1 1:0.304348 2:1 3:0.1 4:0.581397 5:0.5 6:0.612245 
1 1:0.304348 2:1 3:0.1 4:0.674453 5:0.521739 6:0.857143 
1 1:0.304348 2:0.864865 3:0.1 4:0.697685 5:0.5 6:0.918367 
1 1:0.304348 2:1 3:0.1 4:0.581397 5:0.5 6:0.612245 
1 1:0.304348 2:1 3:0.1 4:0.674453 5:0.521739 6:0.857143 
1 1:0.304348 2:0.864865 3:0.1 4:0.697685 5:0.5 6:0.918367 
1 1:0.304348 2:1 3:0.1 4:0.581397 5:0.5 6:0.612245 
1 1:0.304348 2:1 3:0.1 4:0.674453 5:0.521739 6:0.857143 
1 1:0.304348 2:0.864865 3:0.1 4:0.697685 5:0.5 6:0.918367 
1 1:0.304348 2:1 3:0.1 4:0.581397 5:0.5 6:0.612245 
1 1:0.304348 2:1 3:0.1 4:0.674453 5:0.521739 6:0.857143 
1 1:0.304348 2:0.864865 3:0.1 4:0.697685 5:0.5 6:0.918367 
1 1:0.304348 2:1 3:0.1 4:0.581397 5:0.5 6:0.612245 
1 1:0.304348 2:1 3:0.1 4:0.674453 5:0.521739 6:0.857143 
1 1:0.304348 2:0.864865 3:0.1 4:0.697685 5:0.5 6:0.918367 
1 1:0.130435 2:0.418919 3:0.1 4:0.186069 5:0.543478 6:0.142857 
1 1:0.130435 2:0.5 3:0.1 4:0.209301 5:0.565217 6:0.0816327 
1 1:0.130435 2:0.5 3:0.1 4:0.25585 5:0.543478 6:0.0816327 
1 1:0.130435 2:0.5 3:0.1 4:0.348863 5:0.543478 6:0.163265 
1 1:0.130435 2:0.472973 3:0.3 4:0.441877 5:0.521739 6:0.244898 
1 1:0.130435 2:0.459459 3:0.1 4:0.511658 5:0.586957 6:0.469388 
1 1:0.130435 2:0.445946 3:0.1 4:0.534891 5:0.608696 6:0.489796 
1 1:0.130435 2:0.459459 3:0.1 4:0.558165 5:0.608696 6:0.489796 
1 1:0.130435 2:0.459459 3:0.4 4:0.581397 5:0.630435 6:0.469388 
1 1:0.173913 2:0.459459 3:0.1 4:0.558165 5:0.586957 6:0.489796 
1 1:0.173913 2:0.378378 3:0.1 4:0.534891 5:0.565217 6:0.469388 
1 1:0.173913 2:0.405405 3:0.1 4:0.465151 5:0.73913 6:0.469388 
1 1:0.173913 2:0.472973 3:0.6 4:0.441877 5:0.717391 6:0.469388 
1 1:0.173913 2:0.472973 3:0.1 4:0.372096 5:0.717391 6:0.510204 
1 1:0.130435 2:0.418919 3:0.1 4:0.186069 5:0.543478 6:0.142857 
1 1:0.130435 2:0.5 3:0.1 4:0.209301 5:0.565217 6:0.0816327 
1 1:0.130435 2:0.5 3:0.1 4:0.25585 5:0.543478 6:0.0816327 
1 1:0.130435 2:0.5 3:0.1 4:0.348863 5:0.543478 6:0.163265 
1 1:0.130435 2:0.472973 3:0.3 4:0.441877 5:0.521739 6:0.244898 
1 1:0.130435 2:0.459459 3:0.1 4:0.511658 5:0.586957 6:0.469388 
1 1:0.130435 2:0.445946 3:0.1 4:0.534891 5:0.608696 6:0.489796 
1 1:0.130435 2:0.459459 3:0.1 4:0.558165 5:0.608696 6:0.489796 
1 1:0.130435 2:0.459459 3:0.4 4:0.581397 5:0.630435 6:0.469388 
1 1:0.173913 2:0.459459 3:0.1 4:0.558165 5:0.586957 6:0.489796 
1 1:0.173913 2:0.378378 3:0.1 4:0.534891 5:0.565217 6:0.469388 
1 1:0.173913 2:0.405405 3:0.1 4:0.465151 5:0.73913 6:0.469388 
1 1:0.173913 2:0.472973 3:0.6 4:0.441877 5:0.717391 6:0.469388 
1 1:0.173913 2:0.472973 3:0.1 4:0.372096 5:0.717391 6:0.510204 
1 1:0.130435 2:0.418919 3:0.1 4:0.186069 5:0.543478 6:0.142857 
1 1:0.130435 2:0.5 3:0.1 4:0.209301 5:0.565217 6:0.0816327 
1 1:0.130435 2:0.5 3:0.1 4:0.25585 5:0.543478 6:0.0816327 
1 1:0.130435 2:0.5 3:0.1 4:0.348863 5:0.543478 6:0.163265 
1 1:0.130435 2:0.472973 3:0.3 4:0.441877 5:0.521739 6:0.244898 
1 1:0.130435 2:0.459459 3:0.1 4:0.511658 5:0.586957 6:0.469388 
1 1:0.130435 2:0.445946 3:0.1 4:0.534891 5:0.608696 6:0.489796 
1 1:0.130435 2:0.459459 3:0.1 4:0.558165 5:0.608696 6:0.489796 
1 1:0.130435 2:0.459459 3:0.4 4:0.581397 5:0.630435 6:0.469388 
1 1:0.173913 2:0.459459 3:0.1 4:0.558165 5:0.586957 6:0.489796 
1 1:0.173913 2:0.378378 3:0.1 4:0.534891 5:0.565217 6:0.469388 
1 1:0.173913 2:0.405405 3:0.1 4:0.465151 5:0.73913 6:0.469388 
1 1:0.173913 2:0.472973 3:0.6 4:0.441877 5:0.717391 6:0.469388 
1 1:0.173913 2:0.472973 3:0.1 4:0.372096 5:0.717391 6:0.510204 
1 1:0.130435 2:0.418919 3:0.1 4:0.186069 5:0.543478 6:0.142857 
1 1:0.130435 2:0.5 3:0.1 4:0.209301 5:0.565217 6:0.0816327 
1 1:0.130435 2:0.5 3:0.1 4:0.25585 5:0.543478 6:0.0816327 
1 1:0.130435 2:0.5 3:0.1 4:0.348863 5:0.543478 6:0.163265 
1 1:0.130435 2:0.472973 3:0.3 4:0.441877 5:0.521739 6:0.244898 
1 1:0.130435 2:0.459459 3:0.1 4:0.511658 5:0.586957 6:0.469388 
1 1:0.130435 2:0.445946 3:0.1 4:0.534891 5:0.608696 6:0.489796 
1 1:0.130435 2:0.459459 3:0.1 4:0.558165 5:0.608696 6:0.489796 
1 1:0.130435 2:0.459459 3:0.4 4:0.581397 5:0.630435 6:0.469388 
1 1:0.173913 2:0.459459 3:0.1 4:0.558165 5:0.586957 6:0.489796 
1 1:0.173913 2:0.378378 3:0.1 4:0.534891 5:0.565217 6:0.469388 
1 1:0.173913 2:0.405405 3:0.1 4:0.465151 5:0.73913 6:0.469388 
1 1:0.173913 2:0.472973 3:0.6 4:0.441877 5:0.717391 6:0.469388 
1 1:0.173913 2:0.472973 3:0.1 4:0.372096 5:0.717391 6:0.510204 
1 1:0.130435 2:0.418919 3:0.1 4:0.186069 5:0.543478 6:0.142857 
1 1:0.130435 2:0.5 3:0.1 4:0.209301 5:0.565217 6:0.0816327 
1 1:0.130435 2:0.5 3:0.1 4:0.25585 5:0.543478 6:0.0816327 
1 1:0.130435 2:0.5 3:0.1 4:0.348863 5:0.543478 6:0.163265 
1 1:0.130435 2:0.472973 3:0.3 4:0.441877 5:0.521739 6:0.244898 
1 1:0.130435 2:0.459459 3:0.1 4:0.511658 5:0.586957 6:0.469388 
1 1:0.130435 2:0.445946 3:0.1 4:0.534891 5:0.608696 6:0.489796 
1 1:0.130435 2:0.459459 3:0.1 4:0.558165 5:0.608696 6:0.489796 
1 1:0.130435 2:0.459459 3:0.4 4:0.581397 5:0.630435 6:0.469388 
1 1:0.173913 2:0.459459 3:0.1 4:0.558165 5:0.586957 6:0.489796 
1 1:0.173913 2:0.378378 3:0.1 4:0.534891 5:0.565217 6:0.469388 
1 1:0.173913 2:0.405405 3:0.1 4:0.465151 5:0.73913 6:0.469388 
1 1:0.173913 2:0.472973 3:0.6 4:0.441877 5:0.717391 6:0.469388 
1 1:0.173913 2:0.472973 3:0.1 4:0.372096 5:0.717391 6:0.510204 
1 1:0.217391 2:0.581081 3:0.4 4:0.790699 5:0.76087 6:0.346939 
0.059089308856267474 1:0.26087 2:0.5 3:0.1 4:0.953493 5:0.76087 6:0.632653 
0.16172792120669779 1:0.26087 2:0.297297 3:0.3 4:0.697685 5:0.76087 6:0.959184 
1 1:0.26087 2:0.283784 3:0.1 4:0.558165 5:0.804348 6:0.979592 
1 1:0.26087 2:0.337838 3:0.3 4:0.418603 5:0.76087 6:0.795918 
1 1:0.304348 2:0.297297 3:0.1 4:0.348863 5:0.73913 6:0.530612 
1 1:0.304348 2:0.243243 3:0.1 4:0.325589 5:0.73913 6:0.489796 
1 1:0.304348 2:0.175676 3:0.1 4:0.325589 5:0.73913 6:0.489796 
1 1:0.304348 2:0.243243 3:0.1 4:0.325589 5:0.73913 6:0.469388 
1 1:0.304348 2:0.243243 3:0.1 4:0.348863 5:0.717391 6:0.469388 
1 1:0.304348 2:0.297297 3:0.1 4:0.348863 5:0.652174 6:0.489796 
1 1:0.304348 2:0.202703 3:0.1 4:0.372096 5:0.652174 6:0.489796 
1 1:0.304348 2:0.243243 3:0.1 4:0.372096 5:0.673913 6:0.489796 
1 1:0.217391 2:0.581081 3:0.4 4:0.790699 5:0.76087 6:0.346939 
1 1:0.26087 2:0.5 3:0.1 4:0.953493 5:0.76087 6:0.632653 
1 1:0.26087 2:0.297297 3:0.3 4:0.697685 5:0.76087 6:0.959184 
1 1:0.26087 2:0.283784 3:0.1 4:0.558165 5:0.804348 6:0.979592 
1 1:0.26087 2:0.337838 3:0.3 4:0.418603 5:0.76087 6:0.795918 
1 1:0.304348 2:0.297297 3:0.1 4:0.348863 5:0.73913 6:0.530612 
1 1:0.304348 2:0.243243 3:0.1 4:0.325589 5:0.73913 6:0.489796 
1 1:0.304348 2:0.175676 3:0.1 4:0.325589 5:0.73913 6:0.489796 
1 1:0.304348 2:0.243243 3:0.1 4:0.325589 5:0.73913 6:0.469388 
1 1:0.304348 2:0.243243 3:0.1 4:0.348863 5:0.717391 6:0.469388 
1 1:0.304348 2:0.297297 3:0.1 4:0.348863 5:0.652174 6:0.489796 
1 1:0.304348 2:0.202703 3:0.1 4:0.372096 5:0.652174 6:0.489796 
1 1:0.304348 2:0.243243 3:0.1 4:0.372096 5:0.673913 6:0.489796 
1 1:0.217391 2:0.581081 3:0.4 4:0.790699 5:0.76087 6:0.346939 
1 1:0.26087 2:0.5 3:0.1 4:0.953493 5:0.76087 6:0.632653 
1 1:0.26087 2:0.297297 3:0.3 4:0.697685 5:0.76087 6:0.959184 
1 1:0.26087 2:0.283784 3:0.1 4:0.558165 5:0.804348 6:0.979592 
1 1:0.26087 2:0.337838 3:0.3 4:0.418603 5:0.76087 6:0.795918 
1 1:0.304348 2:0.297297 3:0.1 4:0.348863 5:0.73913 6:0.530612 
1 1:0.304348 2:0.243243 3:0.1 4:0.325589 5:0.73913 6:0.489796 
1 1:0.304348 2:0.175676 3:0.1 4:0.325589 5:0.73913 6:0.489796 
1 1:0.304348 2:0.243243 3:0.1 4:0.325589 5:0.73913 6:0.469388 
1 1:0.304348 2:0.243243 3:0.1 4:0.348863 5:0.717391 6:0.469388 
1 1:0.304348 2:0.297297 3:0.1 4:0.348863 5:0.652174 6:0.489796 
1 1:0.304348 2:0.202703 3:0.1 4:0.372096 5:0.652174 6:0.489796 
1 1:0.304348 2:0.243243 3:0.1 4:0.372096 5:0.673913 6:0.489796 
1 1:0.217391 2:0.581081 3:0.4 4:0.790699 5:0.76087 6:0.346939 
1 1:0.26087 2:0.5 3:0.1 4:0.953493 5:0.76087 6:0.632653 
1 1:0.26087 2:0.297297 3:0.3 4:0.697685 5:0.76087 6:0.959184 
1 1:0.26087 2:0.283784 3:0.1 4:0.558165 5:0.804348 6:0.979592 
1 1:0.26087 2:0.337838 3:0.3 4:0.418603 5:0.76087 6:0.795918 
1 1:0.304348 2:0.297297 3:0.1 4:0.348863 5:0.73913 6:0.530612 
1 1:0.304348 2:0.243243 3:0.1 4:0.325589 5:0.73913 6:0.489796 
1 1:0.304348 2:0.175676 3:0.1 4:0.325589 5:0.73913 6:0.489796 
1 1:0.304348 2:0.243243 3:0.1 4:0.325589 5:0.73913 6:0.469388 
1 1:0.304348 2:0.243243 3:0.1 4:0.348863 5:0.717391 6:0.469388 
1 1:0.304348 2:0.297297 3:0.1 4:0.348863 5:0.652174 6:0.489796 
1 1:0.304348 2:0.202703 3:0.1 4:0.372096 5:0.652174 6:0.489796 
1 1:0.304348 2:0.243243 3:0.1 4:0.372096 5:0.673913 6:0.489796 
1 1:0.217391 2:0.581081 3:0.4 4:0.790699 5:0.76087 6:0.346939 
1 1:0.26087 2:0.5 3:0.1 4:0.953493 5:0.76087 6:0.632653 
1 1:0.26087 2:0.297297 3:0.3 4:0.697685 5:0.76087 6:0.959184 
1 1:0.26087 2:0.283784 3:0.1 4:0.558165 5:0.804348 6:0.979592 
1 1:0.26087 2:0.337838 3:0.3 4:0.418603 5:0.76087 6:0.795918 
1 1:0.304348 2:0.297297 3:0.1 4:0.348863 5:0.73913 6:0.530612 
1 1:0.304348 2:0.243243 3:0.1 4:0.325589 5:0.73913 6:0.489796 
1 1:0.304348 2:0.175676 3:0.1 4:0.325589 5:0.73913 6:0.489796 
1 1:0.304348 2:0.243243 3:0.1 4:0.325589 5:0.73913 6:0.469388 
1 1:0.304348 2:0.243243 3:0.1 4:0.348863 5:0.717391 6:0.469388 
1 1:0.304348 2:0.297297 3:0.1 4:0.348863 5:0.652174 6:0.489796 
1 1:0.304348 2:0.202703 3:0.1 4:0.372096 5:0.652174 6:0.489796 
1 1:0.304348 2:0.243243 3:0.1 4:0.372096 5:0.673913 6:0.489796 
1 1:0.217391 2:0.581081 3:0.4 4:0.790699 5:0.76087 6:0.346939 
1 1:0.26087 2:0.5 3:0.1 4:0.953493 5:0.76087 6:0.632653 
1 1:0.26087 2:0.297297 3:0.3 4:0.697685 5:0.76087 6:0.959184 
1 1:0.26087 2:0.283784 3:0.1 4:0.558165 5:0.804348 6:0.979592 
1 1:0.26087 2:0.337838 3:0.3 4:0.418603 5:0.76087 6:0.795918 
1 1:0.304348 2:0.297297 3:0.1 4:0.348863 5:0.73913 6:0.530612 
1 1:0.304348 2:0.243243 3:0.1 4:0.325589 5:0.73913 6:0.489796 
1 1:0.304348 2:0.175676 3:0.1 4:0.325589 5:0.73913 6:0.489796 
1 1:0.304348 2:0.243243 3:0.1 4:0.325589 5:0.73913 6:0.469388 
1 1:0.304348 2:0.243243 3:0.1 4:0.348863 5:0.717391 6:0.469388 
1 1:0.304348 2:0.297297 3:0.1 4:0.348863 5:0.652174 6:0.489796 
1 1:0.304348 2:0.202703 3:0.1 4:0.372096 5:0.652174 6:0.489796 
1 1:0.304348 2:0.243243 3:0.1 4:0.372096 5:0.673913 6:0.489796 
1 1:0.217391 2:0.581081 3:0.4 4:0.790699 5:0.76087 6:0.346939 
1 1:0.26087 2:0.5 3:0.1 4:0.953493 5:0.76087 6:0.632653 
1 1:0.26087 2:0.297297 3:0.3 4:0.697685 5:0.76087 6:0.959184 
1 1:0.26087 2:0.283784 3:0.1 4:0.558165 5:0.804348 6:0.979592 
1 1:0.26087 2:0.337838 3:0.3 4:0.418603 5:0.76087 6:0.795918 
1 1:0.304348 2:0.297297 3:0.1 4:0.348863 5:0.73913 6:0.530612 
1 1:0.304348 2:0.243243 3:0.1 4:0.325589 5:0.73913 6:0.489796 
1 1:0.304348 2:0.175676 3:0.1 4:0.325589 5:0.73913 6:0.489796 
1 1:0.304348 2:0.243243 3:0.1 4:0.325589 5:0.73913 6:0.469388 
1 1:0.304348 2:0.243243 3:0.1 4:0.348863 5:0.717391 6:0.469388 
1 1:0.304348 2:0.297297 3:0.1 4:0.348863 5:0.652174 6:0.489796 
1 1:0.304348 2:0.202703 3:0.1 4:0.372096 5:0.652174 6:0.489796 
1 1:0.304348 2:0.243243 3:0.1 4:0.372096 5:0.673913 6:0.489796 
1 1:0.0869565 2:0.621622 3:0.1 4:0.325589 5:0.413043 6:0.244898 
1 1:0.0869565 2:0.635135 3:0.1 4:0.39537 5:0.456522 6:0.326531 
1 1:0.0869565 2:0.702703 3:0.3 4:0.441877 5:0.478261 6:0.387755 
1 1:0.0869565 2:0.702703 3:0.1 4:0.39537 5:0.456522 6:0.387755 
1 1:0.0869565 2:0.716216 3:0.4 4:0.372096 5:0.565217 6:0.346939 
1 1:0.0869565 2:0.716216 3:0.1 4:0.418603 5:0.586957 6:0.387755 
1 1:0.0869565 2:0.513514 3:0.4 4:0.441877 5:0.543478 6:0.428571 
1 1:0.0869565 2:0.486486 3:0.1 4:0.418603 5:0.543478 6:0.428571 
1 1:0.0869565 2:0.527027 3:0.1 4:0.441877 5:0.565217 6:0.428571 
1 1:0.0869565 2:0.581081 3:0.1 4:0.441877 5:0.608696 6:0.44898 
1 1:0.130435 2:0.608108 3:0.1 4:0.325589 5:0.565217 6:0.44898 
1 1:0.130435 2:0.608108 3:0.3 4:0.302357 5:0.565217 6:0.408163 
1 1:0.130435 2:0.648649 3:0.1 4:0.279082 5:0.630435 6:0.408163 
1 1:0.130435 2:0.797297 3:0.1 4:0.372096 5:0.608696 6:0.408163 
1 1:0.130435 2:0.797297 3:0.1 4:0.441877 5:0.565217 6:0.44898 
1 1:0.130435 2:0.621622 3:0.1 4:0.441877 5:0.608696 6:0.44898 
1 1:0.130435 2:0.567568 3:0.3 4:0.39537 5:0.608696 6:0.428571 
1 1:0.130435 2:0.540541 3:0.1 4:0.441877 5:0.652174 6:0.428571 
1 1:0.130435 2:0.540541 3:0.1 4:0.465151 5:0.673913 6:0.469388 
1 1:0.130435 2:0.540541 3:0.1 4:0.488384 5:0.695652 6:0.55102 
1 1:0.130435 2:0.540541 3:0.1 4:0.488384 5:0.652174 6:0.510204 
1 1:0.0869565 2:0.621622 3:0.1 4:0.325589 5:0.413043 6:0.244898 
1 1:0.0869565 2:0.635135 3:0.1 4:0.39537 5:0.456522 6:0.326531 
1 1:0.0869565 2:0.702703 3:0.3 4:0.441877 5:0.478261 6:0.387755 
1 1:0.0869565 2:0.702703 3:0.1 4:0.39537 5:0.456522 6:0.387755 
1 1:0.0869565 2:0.716216 3:0.4 4:0.372096 5:0.565217 6:0.346939 
1 1:0.0869565 2:0.716216 3:0.1 4:0.418603 5:0.586957 6:0.387755 
1 1:0.0869565 2:0.513514 3:0.4 4:0.441877 5:0.543478 6:0.428571 
1 1:0.0869565 2:0.486486 3:0.1 4:0.418603 5:0.543478 6:0.428571 
1 1:0.0869565 2:0.527027 3:0.1 4:0.441877 5:0.565217 6:0.428571 
1 1:0.0869565 2:0.581081 3:0.1 4:0.441877 5:0.608696 6:0.44898 
1 1:0.130435 2:0.608108 3:0.1 4:0.325589 5:0.565217 6:0.44898 
1 1:0.130435 2:0.608108 3:0.3 4:0.302357 5:0.565217 6:0.408163 
1 1:0.130435 2:0.648649 3:0.1 4:0.279082 5:0.630435 6:0.408163 
1 1:0.130435 2:0.797297 3:0.1 4:0.372096 5:0.608696 6:0.408163 
1 1:0.130435 2:0.797297 3:0.1 4:0.441877 5:0.565217 6:0.44898 
1 1:0.130435 2:0.621622 3:0.1 4:0.441877 5:0.608696 6:0.44898 
1 1:0.130435 2:0.567568 3:0.3 4:0.39537 5:0.608696 6:0.428571 
1 1:0.130435 2:0.540541 3:0.1 4:0.441877 5:0.652174 6:0.428571 
1 1:0.130435 2:0.540541 3:0.1 4:0.465151 5:0.673913 6:0.469388 
1 1:0.130435 2:0.540541 3:0.1 4:0.488384 5:0.695652 6:0.55102 
1 1:0.130435 2:0.540541 3:0.1 4:0.488384 5:0.652174 6:0.510204 
1 1:0.0869565 2:0.621622 3:0.1 4:0.325589 5:0.413043 6:0.244898 
1 1:0.0869565 2:0.635135 3:0.1 4:0.39537 5:0.456522 6:0.326531 
1 1:0.0869565 2:0.702703 3:0.3 4:0.441877 5:0.478261 6:0.387755 
1 1:0.0869565 2:0.702703 3:0.1 4:0.39537 5:0.456522 6:0.387755 
1 1:0.0869565 2:0.716216 3:0.4 4:0.372096 5:0.565217 6:0.346939 
1 1:0.0869565 2:0.716216 3:0.1 4:0.418603 5:0.586957 6:0.387755 
1 1:0.0869565 2:0.513514 3:0.4 4:0.441877 5:0.543478 6:0.428571 
1 1:0.0869565 2:0.486486 3:0.1 4:0.418603 5:0.543478 6:0.428571 
1 1:0.0869565 2:0.527027 3:0.1 4:0.441877 5:0.565217 6:0.428571 
1 1:0.0869565 2:0.581081 3:0.1 4:0.441877 5:0.608696 6:0.44898 
1 1:0.130435 2:0.608108 3:0.1 4:0.325589 5:0.565217 6:0.44898 
1 1:0.130435 2:0.608108 3:0.3 4:0.302357 5:0.565217 6:0.408163 
1 1:0.130435 2:0.648649 3:0.1 4:0.279082 5:0.630435 6:0.408163 
1 1:0.130435 2:0.797297 3:0.1 4:0.372096 5:0.608696 6:0.408163 
1 1:0.130435 2:0.797297 3:0.1 4:0.441877 5:0.565217 6:0.44898 
1 1:0.130435 2:0.621622 3:0.1 4:0.441877 5:0.608696 6:0.44898 
1 1:0.130435 2:0.567568 3:0.3 4:0.39537 5:0.608696 6:0.428571 
1 1:0.130435 2:0.540541 3:0.1 4:0.441877 5:0.652174 6:0.428571 
1 1:0.130435 2:0.540541 3:0.1 4:0.465151 5:0.673913 6:0.469388 
1 1:0.130435 2:0.540541 3:0.1 4:0.488384 5:0.695652 6:0.55102 
1 1:0.130435 2:0.540541 3:0.1 4:0.488384 5:0.652174 6:0.510204 
1 1:0.0869565 2:0.621622 3:0.1 4:0.325589 5:0.413043 6:0.244898 
1 1:0.0869565 2:0.635135 3:0.1 4:0.39537 5:0.456522 6:0.326531 
1 1:0.0869565 2:0.702703 3:0.3 4:0.441877 5:0.478261 6:0.387755 
1 1:0.0869565 2:0.702703 3:0.1 4:0.39537 5:0.456522 6:0.387755 
1 1:0.0869565 2:0.716216 3:0.4 4:0.372096 5:0.565217 6:0.346939 
1 1:0.0869565 2:0.716216 3:0.1 4:0.418603 5:0.586957 6:0.387755 
1 1:0.0869565 2:0.513514 3:0.4 4:0.441877 5:0.543478 6:0.428571 
1 1:0.0869565 2:0.486486 3:0.1 4:0.418603 5:0.543478 6:0.428571 
1 1:0.0869565 2:0.527027 3:0.1 4:0.441877 5:0.565217 6:0.428571 
1 1:0.0869565 2:0.581081 3:0.1 4:0.441877 5:0.608696 6:0.44898 
1 1:0.130435 2:0.608108 3:0.1 4:0.325589 5:0.565217 6:0.44898 
1 1:0.130435 2:0.608108 3:0.3 4:0.302357 5:0.565217 6:0.408163 
1 1:0.130435 2:0.648649 3:0.1 4:0.279082 5:0.630435 6:0.408163 
1 1:0.130435 2:0.797297 3:0.1 4:0.372096 5:0.608696 6:0.408163 
1 1:0.130435 2:0.797297 3:0.1 4:0.441877 5:0.565217 6:0.44898 
1 1:0.130435 2:0.621622 3:0.1 4:0.441877 5:0.608696 6:0.44898 
1 1:0.130435 2:0.567568 3:0.3 4:0.39537 5:0.608696 6:0.428571 
1 1:0.130435 2:0.540541 3:0.1 4:0.441877 5:0.652174 6:0.428571 
1 1:0.130435 2:0.540541 3:0.1 4:0.465151 5:0.673913 6:0.469388 
1 1:0.130435 2:0.540541 3:0.1 4:0.488384 5:0.695652 6:0.55102 
1 1:0.130435 2:0.540541 3:0.1 4:0.488384 5:0.652174 6:0.510204 
1 1:0.0869565 2:0.621622 3:0.1 4:0.325589 5:0.413043 6:0.244898 
1 1:0.0869565 2:0.635135 3:0.1 4:0.39537 5:0.456522 6:0.326531 
1 1:0.0869565 2:0.702703 3:0.3 4:0.441877 5:0.478261 6:0.387755 
1 1:0.0869565 2:0.702703 3:0.1 4:0.39537 5:0.456522 6:0.387755 
1 1:0.0869565 2:0.716216 3:0.4 4:0.372096 5:0.565217 6:0.346939 
1 1:0.0869565 2:0.716216 3:0.1 4:0.418603 5:0.586957 6:0.387755 
1 1:0.0869565 2:0.513514 3:0.4 4:0.441877 5:0.543478 6:0.428571 
1 1:0.0869565 2:0.486486 3:0.1 4:0.418603 5:0.543478 6:0.428571 
1 1:0.0869565 2:0.527027 3:0.1 4:0.441877 5:0.565217 6:0.428571 
1 1:0.0869565 2:0.581081 3:0.1 4:0.441877 5:0.608696 6:0.44898 
1 1:0.130435 2:0.608108 3:0.1 4:0.325589 5:0.565217 6:0.44898 
1 1:0.130435 2:0.608108 3:0.3 4:0.302357 5:0.565217 6:0.408163 
1 1:0.130435 2:0.648649 3:0.1 4:0.279082 5:0.630435 6:0.408163 
1 1:0.130435 2:0.797297 3:0.1 4:0.372096 5:0.608696 6:0.408163 
1 1:0.130435 2:0.797297 3:0.1 4:0.441877 5:0.565217 6:0.44898 
1 1:0.130435 2:0.621622 3:0.1 4:0.441877 5:0.608696 6:0.44898 
1 1:0.130435 2:0.567568 3:0.3 4:0.39537 5:0.608696 6:0.428571 
1 1:0.130435 2:0.540541 3:0.1 4:0.441877 5:0.652174 6:0.428571 
1 1:0.130435 2:0.540541 3:0.1 4:0.465151 5:0.673913 6:0.469388 
1 1:0.130435 2:0.540541 3:0.1 4:0.488384 5:0.695652 6:0.55102 
1 1:0.130435 2:0.540541 3:0.1 4:0.488384 5:0.652174 6:0.510204 
1 1:0.0869565 2:0.621622 3:0.1 4:0.325589 5:0.413043 6:0.244898 
1 1:0.0869565 2:0.635135 3:0.1 4:0.39537 5:0.456522 6:0.326531 
1 1:0.0869565 2:0.702703 3:0.3 4:0.441877 5:0.478261 6:0.387755 
1 1:0.0869565 2:0.702703 3:0.1 4:0.39537 5:0.456522 6:0.387755 
1 1:0.0869565 2:0.716216 3:0.4 4:0.372096 5:0.565217 6:0.346939 
1 1:0.0869565 2:0.716216 3:0.1 4:0.418603 5:0.586957 6:0.387755 
1 1:0.0869565 2:0.513514 3:0.4 4:0.441877 5:0.543478 6:0.428571 
1 1:0.0869565 2:0.486486 3:0.1 4:0.418603 5:0.543478 6:0.428571 
1 1:0.0869565 2:0.527027 3:0.1 4:0.441877 5:0.565217 6:0.428571 
1 1:0.0869565 2:0.581081 3:0.1 4:0.441877 5:0.608696 6:0.44898 
1 1:0.130435 2:0.608108 3:0.1 4:0.325589 5:0.565217 6:0.44898 
1 1:0.130435 2:0.608108 3:0.3 4:0.302357 5:0.565217 6:0.408163 
1 1:0.130435 2:0.648649 3:0.1 4:0.279082 5:0.630435 6:0.408163 
1 1:0.130435 2:0.797297 3:0.1 4:0.372096 5:0.608696 6:0.408163 
1 1:0.130435 2:0.797297 3:0.1 4:0.441877 5:0.565217 6:0.44898 
1 1:0.130435 2:0.621622 3:0.1 4:0.441877 5:0.608696 6:0.44898 
1 1:0.130435 2:0.567568 3:0.3 4:0.39537 5:0.608696 6:0.428571 
1 1:0.130435 2:0.540541 3:0.1 4:0.441877 5:0.652174 6:0.428571 
1 1:0.130435 2:0.540541 3:0.1 4:0.465151 5:0.673913 6:0.469388 
1 1:0.130435 2:0.540541 3:0.1 4:0.488384 5:0.695652 6:0.55102 
1 1:0.130435 2:0.540541 3:0.1 4:0.488384 5:0.652174 6:0.510204 
1 1:0.0869565 2:0.459459 3:0.1 4:0.418603 5:0.478261 6:0.326531 
1 1:0.0869565 2:0.459459 3:0.1 4:0.465151 5:0.521739 6:0.387755 
1 1:0.0869565 2:0.405405 3:0.1 4:0.511658 5:0.521739 6:0.489796 
1 1:0.0869565 2:0.432432 3:0.1 4:0.534891 5:0.565217 6:0.55102 
1 1:0.0869565 2:0.405405 3:0.1 4:0.534891 5:0.565217 6:0.530612 
1 1:0.0869565 2:0.405405 3:0.1 4:0.488384 5:0.608696 6:0.44898 
1 1:0.0869565 2:0.405405 3:0.1 4:0.488384 5:0.586957 6:0.469388 
1 1:0.130435 2:0.364865 3:0.1 4:0.441877 5:0.586957 6:0.489796 
1 1:0.130435 2:0.378378 3:0.1 4:0.465151 5:0.608696 6:0.469388 
1 1:0.130435 2:0.378378 3:0.1 4:0.441877 5:0.630435 6:0.489796 
1 1:0.130435 2:0.391892 3:0.1 4:0.348863 5:0.652174 6:0.489796 
1 1:0.130435 2:0.391892 3:0.1 4:0.279082 5:0.630435 6:0.530612 
1 1:0.130435 2:0.472973 3:0.3 4:0.209301 5:0.543478 6:0.469388 
1 1:0.130435 2:0.472973 3:0.1 4:0.232576 5:0.565217 6:0.428571 
1 1:0.130435 2:0.621622 3:0.1 4:0.25585 5:0.586957 6:0.489796 
1 1:0.130435 2:0.689189 3:0.3 4:0.418603 5:0.543478 6:0.510204 
1 1:0.130435 2:0.756757 3:0.3 4:0.465151 5:0.630435 6:0.489796 
1 1:0.130435 2:0.716216 3:0.1 4:0.534891 5:0.630435 6:0.469388 
1 1:0.173913 2:0.594595 3:0.1 4:0.348863 5:0.652174 6:0.55102 
1 1:0.173913 2:0.472973 3:0.1 4:0.348863 5:0.586957 6:0.571429 
1 1:0.173913 2:0.608108 3:0.1 4:0.418603 5:0.608696 6:0.530612 
1 1:0.173913 2:0.635135 3:0.1 4:0.534891 5:0.673913 6:0.428571 
1 1:0.173913 2:0.648649 3:0.1 4:0.604672 5:0.76087 6:0.387755 
1 1:0.173913 2:0.648649 3:0.1 4:0.581397 5:0.695652 6:0.387755 
1 1:0.173913 2:0.635135 3:0.1 4:0.558165 5:0.804348 6:0.408163 
1 1:0.173913 2:0.756757 3:0.1 4:0.418603 5:0.76087 6:0.489796 
1 1:0.173913 2:0.756757 3:0.1 4:0.39537 5:0.717391 6:0.510204 
1 1:0.173913 2:0.756757 3:0.1 4:0.39537 5:0.73913 6:0.510204 
1 1:0.217391 2:0.689189 3:0.1 4:0.581397 5:0.76087 6:0.408163 
1 1:0.217391 2:0.689189 3:0.1 4:0.511658 5:0.804348 6:0.428571 
1 1:0.217391 2:0.635135 3:0.1 4:0.488384 5:0.76087 6:0.428571 
1 1:0.217391 2:0.635135 3:0.1 4:0.534891 5:0.782609 6:0.489796 
1 1:0.217391 2:0.621622 3:0.1 4:0.488384 5:0.76087 6:0.591837 
1 1:0.217391 2:0.621622 3:0.1 4:0.441877 5:0.913043 6:0.55102 
1 1:0.217391 2:0.418919 3:0.1 4:0.441877 5:0.869565 6:0.510204 
1 1:0.217391 2:0.391892 3:0.1 4:0.441877 5:0.891304 6:0.469388 
1 1:0.217391 2:0.472973 3:0.1 4:0.372096 5:0.934783 6:0.510204 
1 1:0.217391 2:0.486486 3:0.1 4:0.372096 5:0.913043 6:0.510204 
1 1:0.26087 2:0.635135 3:0.1 4:0.720959 5:0.804348 6:0.897959 
1 1:0.26087 2:0.932432 3:0.1 4:0.720959 5:0.608696 6:0.877551 
1 1:0.26087 2:0.932432 3:0.1 4:0.813973 5:0.543478 6:0.897959 
1 1:0.26087 2:0.635135 3:0.1 4:0.837205 5:0.717391 6:0.897959 
1 1:0.26087 2:0.540541 3:0.1 4:0.906986 5:0.652174 6:0.897959 
1 1:0.26087 2:0.5 3:0.1 4:0.906986 5:0.652174 6:0.877551 
0.35163224980783736 1:0.26087 2:0.540541 3:0.3 4:1 5:0.673913 6:0.836735 
1 1:0.304348 2:0.378378 3:0.1 4:0.604672 5:0.695652 6:0.346939 
1 1:0.347826 2:0.121622 3:0.1 4:0.418603 5:0.847826 6:0.489796 
1 1:0.347826 2:0.121622 3:0.3 4:0.418603 5:0.76087 6:0.489796 
1 1:0.347826 2:0.0810811 3:0.4 4:0.418603 5:0.717391 6:0.489796 
1 1:0.347826 2:0.121622 3:0.1 4:0.418603 5:0.717391 6:0.489796 
1 1:0.347826 2:0.121622 3:0.1 4:0.418603 5:0.695652 6:0.489796 
1 1:0.347826 2:0.121622 3:0.1 4:0.418603 5:0.695652 6:0.489796 
1 1:0.347826 2:0.121622 3:0.1 4:0.418603 5:0.565217 6:0.489796 
1 1:0.347826 2:0.121622 3:0.4 4:0.441877 5:0.608696 6:0.489796 
1 1:0.391304 2:0.22973 3:0.6 4:0.418603 5:0.717391 6:0.510204 
1 1:0.391304 2:0.22973 3:0.4 4:0.441877 5:0.73913 6:0.510204 
1 1:0.391304 2:0.202703 3:0.4 4:0.441877 5:0.717391 6:0.510204 
1 1:0.391304 2:0.216216 3:0.4 4:0.441877 5:0.73913 6:0.510204 
1 1:0.391304 2:0.216216 3:0.3 4:0.441877 5:0.73913 6:0.510204 
1 1:0.391304 2:0.189189 3:0.1 4:0.441877 5:0.717391 6:0.510204 
1 1:0.391304 2:0.121622 3:0.1 4:0.441877 5:0.717391 6:0.510204 
1 1:0.391304 2:0.135135 3:0.6 4:0.441877 5:0.652174 6:0.510204 
1 1:0.347826 2:0.121622 3:0.1 4:0.418603 5:0.847826 6:0.489796 
1 1:0.347826 2:0.121622 3:0.3 4:0.418603 5:0.76087 6:0.489796 
1 1:0.347826 2:0.0810811 3:0.4 4:0.418603 5:0.717391 6:0.489796 
1 1:0.347826 2:0.121622 3:0.1 4:0.418603 5:0.717391 6:0.489796 
1 1:0.347826 2:0.121622 3:0.1 4:0.418603 5:0.695652 6:0.489796 
1 1:0.347826 2:0.121622 3:0.1 4:0.418603 5:0.695652 6:0.489796 
1 1:0.347826 2:0.121622 3:0.1 4:0.418603 5:0.565217 6:0.489796 
1 1:0.347826 2:0.121622 3:0.4 4:0.441877 5:0.608696 6:0.489796 
1 1:0.391304 2:0.22973 3:0.6 4:0.418603 5:0.717391 6:0.510204 
1 1:0.391304 2:0.22973 3:0.4 4:0.441877 5:0.73913 6:0.510204 
1 1:0.391304 2:0.202703 3:0.4 4:0.441877 5:0.717391 6:0.510204 
1 1:0.391304 2:0.216216 3:0.4 4:0.441877 5:0.73913 6:0.510204 
1 1:0.391304 2:0.216216 3:0.3 4:0.441877 5:0.73913 6:0.510204 
1 1:0.391304 2:0.189189 3:0.1 4:0.441877 5:0.717391 6:0.510204 
1 1:0.391304 2:0.121622 3:0.1 4:0.441877 5:0.717391 6:0.510204 
1 1:0.391304 2:0.135135 3:0.6 4:0.441877 5:0.652174 6:0.510204 
1 1:0.347826 2:0.121622 3:0.1 4:0.418603 5:0.847826 6:0.489796 
1 1:0.347826 2:0.121622 3:0.3 4:0.418603 5:0.76087 6:0.489796 
1 1:0.347826 2:0.0810811 3:0.4 4:0.418603 5:0.717391 6:0.489796 
1 1:0.347826 2:0.121622 3:0.1 4:0.418603 5:0.717391 6:0.489796 
1 1:0.347826 2:0.121622 3:0.1 4:0.418603 5:0.695652 6:0.489796 
1 1:0.347826 2:0.121622 3:0.1 4:0.418603 5:0.695652 6:0.489796 
1 1:0.347826 2:0.121622 3:0.1 4:0.418603 5:0.565217 6:0.489796 
1 1:0.347826 2:0.121622 3:0.4 4:0.441877 5:0.608696 6:0.489796 
1 1:0.391304 2:0.22973 3:0.6 4:0.418603 5:0.717391 6:0.510204 
1 1:0.391304 2:0.22973 3:0.4 4:0.441877 5:0.73913 6:0.510204 
1 1:0.391304 2:0.202703 3:0.4 4:0.441877 5:0.717391 6:0.510204 
1 1:0.391304 2:0.216216 3:0.4 4:0.441877 5:0.73913 6:0.510204 
1 1:0.391304 2:0.216216 3:0.3 4:0.441877 5:0.73913 6:0.510204 
1 1:0.391304 2:0.189189 3:0.1 4:0.441877 5:0.717391 6:0.510204 
1 1:0.391304 2:0.121622 3:0.1 4:0.441877 5:0.717391 6:0.510204 
1 1:0.391304 2:0.135135 3:0.6 4:0.441877 5:0.652174 6:0.510204 
1 1:0.347826 2:0.121622 3:0.1 4:0.418603 5:0.847826 6:0.489796 
1 1:0.347826 2:0.121622 3:0.3 4:0.418603 5:0.76087 6:0.489796 
1 1:0.347826 2:0.0810811 3:0.4 4:0.418603 5:0.717391 6:0.489796 
1 1:0.347826 2:0.121622 3:0.1 4:0.418603 5:0.717391 6:0.489796 
1 1:0.347826 2:0.121622 3:0.1 4:0.418603 5:0.695652 6:0.489796 
1 1:0.347826 2:0.121622 3:0.1 4:0.418603 5:0.695652 6:0.489796 
1 1:0.347826 2:0.121622 3:0.1 4:0.418603 5:0.565217 6:0.489796 
1 1:0.347826 2:0.121622 3:0.4 4:0.441877 5:0.608696 6:0.489796 
1 1:0.391304 2:0.22973 3:0.6 4:0.418603 5:0.717391 6:0.510204 
1 1:0.391304 2:0.22973 3:0.4 4:0.441877 5:0.73913 6:0.510204 
1 1:0.391304 2:0.202703 3:0.4 4:0.441877 5:0.717391 6:0.510204 
1 1:0.391304 2:0.216216 3:0.4 4:0.441877 5:0.73913 6:0.510204 
1 1:0.391304 2:0.216216 3:0.3 4:0.441877 5:0.73913 6:0.510204 
1 1:0.391304 2:0.189189 3:0.1 4:0.441877 5:0.717391 6:0.510204 
1 1:0.391304 2:0.121622 3:0.1 4:0.441877 5:0.717391 6:0.510204 
1 1:0.391304 2:0.135135 3:0.6 4:0.441877 5:0.652174 6:0.510204 
1 1:0.347826 2:0.121622 3:0.1 4:0.418603 5:0.847826 6:0.489796 
1 1:0.347826 2:0.121622 3:0.3 4:0.418603 5:0.76087 6:0.489796 
1 1:0.347826 2:0.0810811 3:0.4 4:0.418603 5:0.717391 6:0.489796 
1 1:0.347826 2:0.121622 3:0.1 4:0.418603 5:0.717391 6:0.489796 
1 1:0.347826 2:0.121622 3:0.1 4:0.418603 5:0.695652 6:0.489796 
1 1:0.347826 2:0.121622 3:0.1 4:0.418603 5:0.695652 6:0.489796 
1 1:0.347826 2:0.121622 3:0.1 4:0.418603 5:0.565217 6:0.489796 
1 1:0.347826 2:0.121622 3:0.4 4:0.441877 5:0.608696 6:0.489796 
1 1:0.391304 2:0.22973 3:0.6 4:0.418603 5:0.717391 6:0.510204 
1 1:0.391304 2:0.22973 3:0.4 4:0.441877 5:0.73913 6:0.510204 
1 1:0.391304 2:0.202703 3:0.4 4:0.441877 5:0.717391 6:0.510204 
1 1:0.391304 2:0.216216 3:0.4 4:0.441877 5:0.73913 6:0.510204 
1 1:0.391304 2:0.216216 3:0.3 4:0.441877 5:0.73913 6:0.510204 
1 1:0.391304 2:0.189189 3:0.1 4:0.441877 5:0.717391 6:0.510204 
1 1:0.391304 2:0.121622 3:0.1 4:0.441877 5:0.717391 6:0.510204 
1 1:0.391304 2:0.135135 3:0.6 4:0.441877 5:0.652174 6:0.510204 
1 1:0.347826 2:0.121622 3:0.1 4:0.418603 5:0.847826 6:0.489796 
1 1:0.347826 2:0.121622 3:0.3 4:0.418603 5:0.76087 6:0.489796 
1 1:0.347826 2:0.0810811 3:0.4 4:0.418603 5:0.717391 6:0.489796 
1 1:0.347826 2:0.121622 3:0.1 4:0.418603 5:0.717391 6:0.489796 
1 1:0.347826 2:0.121622 3:0.1 4:0.418603 5:0.695652 6:0.489796 
1 1:0.347826 2:0.121622 3:0.1 4:0.418603 5:0.695652 6:0.489796 
1 1:0.347826 2:0.121622 3:0.1 4:0.418603 5:0.565217 6:0.489796 
1 1:0.347826 2:0.121622 3:0.4 4:0.441877 5:0.608696 6:0.489796 
1 1:0.391304 2:0.22973 3:0.6 4:0.418603 5:0.717391 6:0.510204 
1 1:0.391304 2:0.22973 3:0.4 4:0.441877 5:0.73913 6:0.510204 
1 1:0.391304 2:0.202703 3:0.4 4:0.441877 5:0.717391 6:0.510204 
1 1:0.391304 2:0.216216 3:0.4 4:0.441877 5:0.73913 6:0.510204 
1 1:0.391304 2:0.216216 3:0.3 4:0.441877 5:0.73913 6:0.510204 
1 1:0.391304 2:0.189189 3:0.1 4:0.441877 5:0.717391 6:0.510204 
1 1:0.391304 2:0.121622 3:0.1 4:0.441877 5:0.717391 6:0.510204 
1 1:0.391304 2:0.135135 3:0.6 4:0.441877 5:0.652174 6:0.510204 
-1 1:0.347826 2:0.527027 3:0.1 4:0.720959 5:0.478261 6:0.918367 
-1 1:0.347826 2:0.527027 3:0.1 4:0.720959 5:0.478261 6:0.918367 
-1 1:0.347826 2:0.432432 3:0.3 4:0.720959 5:0.478261 6:0.918367 
-1 1:0.347826 2:0.283784 3:0.1 4:0.720959 5:0.543478 6:0.918367 
-1 1:0.347826 2:0.256757 3:0.1 4:0.720959 5:0.521739 6:0.918367 
-1 1:0.347826 2:0.162162 3:0.1 4:0.720959 5:0.543478 6:0.918367 
-1 1:0.347826 2:0.175676 3:0.1 4:0.720959 5:0.565217 6:0.918367 
-1 1:0.347826 2:0.202703 3:0.6 4:0.581397 5:0.608696 6:0.795918 
-1 1:0.347826 2:0.202703 3:0.6 4:0.488384 5:0.608696 6:0.55102 
-1 1:0.347826 2:0.135135 3:0.6 4:0.441877 5:0.652174 6:0.489796 
-1 1:0.347826 2:0.121622 3:0.1 4:0.418603 5:0.652174 6:0.489796 
-1 1:0.391304 2:0.216216 3:0.1 4:0.418603 5:0.695652 6:0.510204 
-1 1:0.391304 2:0.337838 3:0.1 4:0.418603 5:0.695652 6:0.510204 
-1 1:0.391304 2:0.337838 3:0.1 4:0.418603 5:0.717391 6:0.510204 
-1 1:0.391304 2:0.337838 3:0.3 4:0.418603 5:0.673913 6:0.530612 
-1 1:0.391304 2:0.337838 3:0.1 4:0.418603 5:0.695652 6:0.530612 
-1 1:0.391304 2:0.243243 3:0.3 4:0.418603 5:0.695652 6:0.530612 
-1 1:0.391304 2:0.27027 3:0.6 4:0.39537 5:0.717391 6:0.55102 
-1 1:0.391304 2:0.283784 3:0.1 4:0.39537 5:0.76087 6:0.55102 
-1 1:0.391304 2:0.283784 3:0.3 4:0.418603 5:0.717391 6:0.55102 
-1 1:0.391304 2:0.202703 3:0.1 4:0.418603 5:0.73913 6:0.55102 
-1 1:0.391304 2:0.216216 3:0.1 4:0.418603 5:0.782609 6:0.530612 
-1 1:0.434783 2:0.243243 3:0.1 4:0.418603 5:0.782609 6:0.530612 
-1 1:0.434783 2:0.162162 3:0.1 4:0.418603 5:0.782609 6:0.530612 
-1 1:0.434783 2:0.175676 3:0.1 4:0.418603 5:0.695652 6:0.510204 
-1 1:0.434783 2:0.175676 3:0.1 4:0.418603 5:0.673913 6:0.510204 
-1 1:0.434783 2:0.162162 3:0.3 4:0.39537 5:0.630435 6:0.510204 
-1 1:0.434783 2:0.162162 3:0.1 4:0.418603 5:0.630435 6:0.489796 
-1 1:0.434783 2:0.121622 3:0.1 4:0.418603 5:0.565217 6:0.489796 
-1 1:0.434783 2:0.121622 3:0.6 4:0.418603 5:0.5 6:0.489796 
-1 2:0.297297 3:0.1 4:0.372096 5:0.391304 6:0.55102 
-1 2:0.256757 3:0.1 4:0.372096 5:0.304348 6:0.530612 
-1 2:0.256757 3:0.1 4:0.372096 5:0.391304 6:0.530612 
-1 2:0.351351 3:0.1 4:0.372096 5:0.326087 6:0.530612 
-1 2:0.351351 3:0.1 4:0.372096 5:0.347826 6:0.510204 
-1 2:0.27027 3:0.1 4:0.39537 5:0.326087 6:0.510204 
-1 2:0.283784 3:0.4 4:0.372096 5:0.304348 6:0.469388 
-1 2:0.283784 3:0.1 4:0.348863 5:0.304348 6:0.469388 
-1 2:0.243243 3:0.1 4:0.372096 5:0.326087 6:0.428571 
-1 2:0.243243 3:0.1 4:0.348863 5:0.347826 6:0.367347 
-1 2:0.243243 3:0.1 4:0.372096 5:0.326087 6:0.387755 
-1 1:0.0434783 2:0.22973 3:0.1 4:0.372096 5:0.347826 6:0.408163 
-1 1:0.0434783 2:0.189189 3:0.1 4:0.372096 5:0.347826 6:0.387755 
-1 1:0.0434783 2:0.189189 3:0.1 4:0.372096 5:0.347826 6:0.408163 
-1 1:0.0434783 2:0.337838 3:0.1 4:0.348863 5:0.347826 6:0.367347 
-1 1:0.0434783 2:0.337838 3:0.1 4:0.372096 5:0.413043 6:0.367347 
-1 1:0.0434783 2:0.364865 3:0.1 4:0.39537 5:0.369565 6:0.367347 
-1 1:0.0434783 2:0.364865 3:0.1 4:0.372096 5:0.369565 6:0.408163 
-1 1:0.0434783 2:0.310811 3:0.1 4:0.372096 5:0.326087 6:0.408163 
-1 1:0.0434783 2:0.337838 3:0.1 4:0.325589 5:0.369565 6:0.306122 
-1 1:0.0434783 2:0.459459 3:0.1 4:0.325589 5:0.347826 6:0.285714 
-1 1:0.0869565 2:0.310811 3:0.1 4:0.372096 5:0.434783 6:0.326531 
-1 1:0.0869565 2:0.432432 3:0.1 4:0.372096 5:0.413043 6:0.285714 
-1 1:0.0869565 2:0.432432 3:0.1 4:0.441877 5:0.478261 6:0.367347 
-1 1:0.0869565 2:0.310811 3:0.1 4:0.488384 5:0.456522 6:0.489796 
-1 1:0.0869565 2:0.283784 3:0.1 4:0.488384 5:0.478261 6:0.571429 
-1 1:0.0869565 2:0.283784 3:0.1 4:0.441877 5:0.521739 6:0.571429 
-1 1:0.0869565 2:0.202703 3:0.1 4:0.418603 5:0.5 6:0.469388 
-1 1:0.0869565 2:0.202703 3:0.1 4:0.372096 5:0.478261 6:0.428571 
-1 1:0.0869565 2:0.378378 3:0.1 4:0.348863 5:0.5 6:0.306122 
-1 1:0.0869565 2:0.378378 3:0.1 4:0.325589 5:0.478261 6:0.326531 
-1 1:0.0869565 2:0.378378 3:0.1 4:0.25585 5:0.478261 6:0.285714 
-1 1:0.130435 2:0.445946 3:0.1 4:0.232576 5:0.521739 6:0.326531 
-1 1:0.130435 2:0.445946 3:0.1 4:0.209301 5:0.543478 6:0.244898 
-1 1:0.173913 2:0.405405 3:0.1 4:0.302357 5:0.782609 6:0.530612 
-1 1:0.173913 2:0.405405 3:0.1 4:0.209301 5:0.782609 6:0.571429 
-1 1:0.173913 2:0.364865 3:0.1 4:0.186069 5:0.76087 6:0.571429 
-1 1:0.217391 2:0.662162 3:0.1 4:0.209301 5:0.826087 6:0.632653 
-1 1:0.217391 2:0.513514 3:0.1 4:0.232576 5:0.826087 6:0.591837 
-1 1:0.217391 2:0.513514 3:0.1 4:0.279082 5:0.869565 6:0.55102 
-1 1:0.217391 2:0.5 3:0.3 4:0.372096 5:0.826087 6:0.510204 
-1 1:0.217391 2:0.337838 3:0.1 4:0.441877 5:0.826087 6:0.489796 
-1 1:0.217391 2:0.337838 3:0.1 4:0.465151 5:0.913043 6:0.489796 
-1 1:0.217391 2:0.337838 3:0.1 4:0.488384 5:0.847826 6:0.469388 
-1 1:0.217391 2:0.324324 3:0.1 4:0.534891 5:0.869565 6:0.44898 
-1 1:0.217391 2:0.351351 3:0.4 4:0.627904 5:0.847826 6:0.387755 
-1 1:0.304348 2:0.243243 3:0.1 4:0.39537 5:0.73913 6:0.489796 
-1 1:0.304348 2:0.283784 3:0.1 4:0.418603 5:0.804348 6:0.530612 
-1 1:0.304348 2:0.283784 3:0.1 4:0.418603 5:0.73913 6:0.55102 
-1 1:0.347826 2:0.418919 3:0.1 4:0.465151 5:0.869565 6:0.55102 
-1 1:0.347826 2:0.418919 3:0.4 4:0.465151 5:0.804348 6:0.530612 
-1 1:0.347826 2:0.405405 3:0.3 4:0.488384 5:0.73913 6:0.55102 
-1 1:0.347826 2:0.364865 3:0.1 4:0.488384 5:0.76087 6:0.530612 
-1 1:0.347826 2:0.337838 3:0.1 4:0.534891 5:0.73913 6:0.510204 
-1 1:0.347826 2:0.432432 3:0.6 4:0.511658 5:0.695652 6:0.510204 
-1 1:0.347826 2:0.432432 3:0.4 4:0.534891 5:0.608696 6:0.510204 
-1 1:0.347826 2:0.418919 3:0.1 4:0.534891 5:0.586957 6:0.489796 
-1 1:0.347826 2:0.743243 3:0.1 4:0.558165 5:0.543478 6:0.489796 
-1 1:0.347826 2:0.743243 3:0.1 4:0.581397 5:0.565217 6:0.44898 
-1 1:0.347826 2:0.716216 3:0.4 4:0.581397 5:0.586957 6:0.428571 
-1 1:0.391304 2:0.432432 3:0.1 4:0.581397 5:0.521739 6:0.408163 
-1 1:0.391304 2:0.581081 3:0.1 4:0.558165 5:0.521739 6:0.408163 
-1 1:0.391304 2:0.581081 3:0.1 4:0.558165 5:0.521739 6:0.408163 
-1 1:0.391304 2:0.567568 3:0.3 4:0.558165 5:0.586957 6:0.428571 
-1 1:0.391304 2:0.567568 3:0.1 4:0.558165 5:0.565217 6:0.428571 
-1 1:0.391304 2:0.5 3:0.3 4:0.558165 5:0.586957 6:0.428571 
-1 1:0.391304 2:0.486486 3:0.3 4:0.534891 5:0.565217 6:0.469388 
-1 1:0.391304 2:0.486486 3:0.4 4:0.511658 5:0.543478 6:0.469388 
-1 1:0.391304 2:0.378378 3:0.3 4:0.488384 5:0.5 6:0.489796 
-1 1:0.695652 2:0.162162 3:0.6 4:0.441877 5:0.717391 6:0.510204 
-1 1:0.73913 2:0.162162 3:0.4 4:0.441877 5:0.804348 6:0.510204 
-1 1:0.73913 2:0.121622 3:0.1 4:0.441877 5:0.826087 6:0.510204 
-1 1:0.73913 2:0.121622 3:0.1 4:0.441877 5:0.826087 6:0.489796 
-1 1:0.73913 2:0.148649 3:0.4 4:0.441877 5:0.782609 6:0.489796 
-1 1:0.73913 2:0.162162 3:0.4 4:0.441877 5:0.826087 6:0.489796 
-1 1:0.73913 2:0.243243 3:0.4 4:0.441877 5:0.826087 6:0.489796 
-1 1:0.73913 2:0.202703 3:0.4 4:0.441877 5:0.826087 6:0.489796 
-0.34689402958306897 1:0.73913 2:0.162162 3:0.1 4:0.441877 5:0.826087 6:0.489796 
-1 1:0.73913 2:0.216216 3:0.6 4:0.441877 5:0.782609 6:0.489796 
-1 2:0.189189 3:0.1 4:0.441877 5:0.543478 6:0.489796 
-1 2:0.189189 3:0.1 4:0.441877 5:0.543478 6:0.489796 
-1 2:0.189189 3:0.1 4:0.441877 5:0.543478 6:0.489796 
-1 2:0.189189 3:0.1 4:0.441877 5:0.543478 6:0.489796 
-1 2:0.189189 3:0.1 4:0.441877 5:0.543478 6:0.489796 
-1 2:0.189189 3:0.1 4:0.441877 5:0.543478 6:0.489796 
-1 2:0.189189 3:0.1 4:0.441877 5:0.543478 6:0.489796 
-1 2:0.189189 3:0.1 4:0.441877 5:0.543478 6:0.489796 
-1 2:0.189189 3:0.1 4:0.441877 5:0.543478 6:0.489796 
-1 2:0.189189 3:0.1 4:0.441877 5:0.543478 6:0.489796 
-1 2:0.189189 3:0.1 4:0.441877 5:0.543478 6:0.489796 
-1 1:0.0434783 2:0.189189 3:0.1 4:0.441877 5:0.543478 6:0.489796 
-1 1:0.0434783 2:0.189189 3:0.1 4:0.441877 5:0.543478 6:0.489796 
-1 1:0.0434783 2:0.189189 3:0.1 4:0.441877 5:0.543478 6:0.489796 
-1 1:0.0434783 2:0.189189 3:0.1 4:0.441877 5:0.543478 6:0.489796 
-1 1:0.0434783 2:0.189189 3:0.1 4:0.441877 5:0.543478 6:0.489796 
-1 1:0.0434783 2:0.189189 3:0.1 4:0.441877 5:0.543478 6:0.489796 
-1 1:0.0434783 2:0.189189 3:0.1 4:0.441877 5:0.543478 6:0.489796 
-1 1:0.0434783 2:0.189189 3:0.1 4:0.441877 5:0.543478 6:0.489796 
-1 1:0.0434783 2:0.189189 3:0.1 4:0.441877 5:0.543478 6:0.489796 
-1 1:0.0434783 2:0.189189 3:0.1 4:0.441877 5:0.543478 6:0.489796 
-1 1:0.0434783 2:0.189189 3:0.1 4:0.441877 5:0.543478 6:0.489796 
-1 1:0.0869565 2:0.189189 3:0.1 4:0.441877 5:0.543478 6:0.489796 
-1 1:0.0869565 2:0.189189 3:0.1 4:0.441877 5:0.543478 6:0.489796 
-1 1:0.0869565 2:0.189189 3:0.1 4:0.441877 5:0.543478 6:0.489796 
-1 1:0.0869565 2:0.189189 3:0.1 4:0.441877 5:0.543478 6:0.489796 
-1 1:0.0869565 2:0.189189 3:0.1 4:0.441877 5:0.543478 6:0.489796 
-1 1:0.0869565 2:0.189189 3:0.1 4:0.441877 5:0.543478 6:0.489796 
-1 1:0.0869565 2:0.189189 3:0.1 4:0.441877 5:0.543478 6:0.489796 
-1 1:0.0869565 2:0.189189 3:0.1 4:0.441877 5:0.543478 6:0.489796 
-1 1:0.0869565 2:0.189189 3:0.1 4:0.441877 5:0.543478 6:0.489796 
-1 1:0.0869565 2:0.189189 3:0.1 4:0.441877 5:0.543478 6:0.489796 
-1 1:0.0869565 2:0.189189 3:0.1 4:0.441877 5:0.543478 6:0.489796 
-1 1:0.130435 2:0.189189 3:0.1 4:0.441877 5:0.543478 6:0.489796 
-1 1:0.130435 2:0.189189 3:0.1 4:0.441877 5:0.543478 6:0.489796 
-1 1:0.130435 2:0.189189 3:0.1 4:0.441877 5:0.543478 6:0.489796 
-1 1:0.130435 2:0.189189 3:0.1 4:0.441877 5:0.543478 6:0.489796 
-1 1:0.130435 2:0.189189 3:0.1 4:0.441877 5:0.543478 6:0.489796 
-1 1:0.130435 2:0.189189 3:0.1 4:0.441877 5:0.543478 6:0.489796 
-1 1:0.130435 2:0.189189 3:0.1 4:0.441877 5:0.543478 6:0.489796 
-1 1:0.130435 2:0.189189 3:0.1 4:0.441877 5:0.543478 6:0.489796 
-1 1:0.130435 2:0.189189 3:0.1 4:0.441877 5:0.543478 6:0.489796 
-1 1:0.130435 2:0.189189 3:0.1 4:0.441877 5:0.543478 6:0.489796 
-1 1:0.130435 2:0.189189 3:0.1 4:0.441877 5:0.543478 6:0.489796 
-1 1:0.173913 2:0.189189 3:0.1 4:0.441877 5:0.543478 6:0.489796 
-1 1:0.173913 2:0.189189 3:0.1 4:0.441877 5:0.543478 6:0.489796 
-1 1:0.173913 2:0.189189 3:0.1 4:0.441877 5:0.543478 6:0.489796 
-1 1:0.173913 2:0.189189 3:0.1 4:0.441877 5:0.543478 6:0.489796 
-1 1:0.173913 2:0.189189 3:0.1 4:0.441877 5:0.543478 6:0.489796 
-1 1:0.173913 2:0.189189 3:0.1 4:0.441877 5:0.543478 6:0.489796 
-1 1:0.173913 2:0.189189 3:0.1 4:0.441877 5:0.543478 6:0.489796 
-1 1:0.173913 2:0.189189 3:0.1 4:0.441877 5:0.543478 6:0.489796 
-1 1:0.173913 2:0.189189 3:0.1 4:0.441877 5:0.543478 6:0.489796 
-1 1:0.173913 2:0.189189 3:0.1 4:0.441877 5:0.543478 6:0.489796 
-1 1:0.173913 2:0.189189 3:0.1 4:0.441877 5:0.543478 6:0.489796 
-0.027164094648850886 1:0.217391 2:0.743243 3:0.1 4:0.0465486 5:0.673913 6:0.0612245 
-1 1:0.217391 2:0.743243 3:0.1 4:0.0465486 5:0.673913 6:0.0612245 
-1 1:0.217391 2:0.743243 3:0.1 4:0.0465486 5:0.673913 6:0.0612245 
-1 1:0.217391 2:0.743243 3:0.1 4:0.0465486 5:0.673913 6:0.0612245 
-1 1:0.217391 2:0.743243 3:0.1 4:0.0465486 5:0.673913 6:0.0612245 
-1 1:0.217391 2:0.743243 3:0.1 4:0.0465486 5:0.673913 6:0.0612245 
-1 1:0.217391 2:0.743243 3:0.1 4:0.0465486 5:0.673913 6:0.0612245 
-1 1:0.217391 2:0.743243 3:0.1 4:0.488384 5:0.673913 6:0.469388 
-1 1:0.26087 2:0.364865 3:0.1 4:0.372096 5:0.717391 6:0.510204 
-1 1:0.26087 2:0.5 3:0.1 4:0.39537 5:0.717391 6:0.510204 
-1 1:0.26087 2:0.567568 3:0.1 4:0.418603 5:0.76087 6:0.489796 
-1 1:0.26087 2:0.567568 3:0.3 4:0.465151 5:0.782609 6:0.469388 
-1 1:0.26087 2:0.554054 3:0.1 4:0.465151 5:0.782609 6:0.469388 
-1 1:0.26087 2:0.648649 3:0.1 4:0.488384 5:0.826087 6:0.469388 
-1 1:0.26087 2:0.648649 3:0.1 4:0.488384 5:0.826087 6:0.469388 
-1 1:0.26087 2:0.554054 3:0.1 4:0.488384 5:0.826087 6:0.469388 
-1 1:0.26087 2:0.567568 3:0.1 4:0.465151 5:0.804348 6:0.469388 
-1 1:0.26087 2:0.567568 3:0.1 4:0.465151 5:0.782609 6:0.469388 
-1 1:0.26087 2:0.675676 3:0.1 4:0.511658 5:0.717391 6:0.469388 
-1 1:0.304348 2:0.689189 3:0.1 4:0.511658 5:0.652174 6:0.44898 
-1 1:0.304348 2:0.675676 3:0.1 4:0.488384 5:0.630435 6:0.469388 
-1 1:0.304348 2:0.675676 3:0.4 4:0.441877 5:0.652174 6:0.489796 
-1 1:0.304348 2:0.554054 3:0.1 4:0.441877 5:0.673913 6:0.489796 
-1 1:0.304348 2:0.540541 3:0.1 4:0.418603 5:0.652174 6:0.489796 
-1 1:0.304348 2:0.594595 3:0.1 4:0.418603 5:0.630435 6:0.469388 
-1 1:0.304348 2:0.594595 3:0.1 4:0.418603 5:0.608696 6:0.469388 
-1 1:0.304348 2:0.527027 3:0.1 4:0.465151 5:0.630435 6:0.469388 
-1 1:0.304348 2:0.527027 3:0.3 4:0.465151 5:0.673913 6:0.489796 
-1 1:0.304348 2:0.513514 3:0.1 4:0.488384 5:0.652174 6:0.469388 
-1 1:0.347826 2:0.540541 3:0.1 4:0.511658 5:0.652174 6:0.530612 
-1 1:0.347826 2:0.540541 3:0.1 4:0.511658 5:0.652174 6:0.55102 
-1 1:0.347826 2:0.540541 3:0.1 4:0.534891 5:0.630435 6:0.591837 
-1 1:0.347826 2:0.540541 3:0.4 4:0.558165 5:0.586957 6:0.612245 
-1 1:0.347826 2:0.608108 3:0.6 4:0.558165 5:0.608696 6:0.632653 
-1 1:0.347826 2:0.608108 3:0.1 4:0.558165 5:0.565217 6:0.673469 
-1 1:0.347826 2:0.540541 3:0.1 4:0.558165 5:0.608696 6:0.714286 
-1 1:0.347826 2:0.5 3:0.1 4:0.534891 5:0.586957 6:0.714286 
-1 1:0.347826 2:0.5 3:0.1 4:0.534891 5:0.630435 6:0.714286 
-1 1:0.347826 2:0.594595 3:0.1 4:0.534891 5:0.630435 6:0.714286 
-1 1:0.347826 2:0.594595 3:0.3 4:0.534891 5:0.630435 6:0.734694 
-1 1:0.391304 2:0.527027 3:0.3 4:0.511658 5:0.630435 6:0.714286 
-1 1:0.391304 2:0.527027 3:0.1 4:0.488384 5:0.673913 6:0.693878 
-1 1:0.391304 2:0.445946 3:0.6 4:0.488384 5:0.673913 6:0.693878 
-1 1:0.391304 2:0.445946 3:0.4 4:0.488384 5:0.652174 6:0.693878 
-1 1:0.391304 2:0.405405 3:0.4 4:0.511658 5:0.652174 6:0.693878 
-1 1:0.391304 2:0.445946 3:0.4 4:0.511658 5:0.673913 6:0.673469 
-1 1:0.391304 2:0.445946 3:0.1 4:0.511658 5:0.695652 6:0.693878 
-1 1:0.391304 2:0.364865 3:0.1 4:0.511658 5:0.673913 6:0.673469 
-1 1:0.391304 2:0.351351 3:0.4 4:0.511658 5:0.630435 6:0.673469 
-1 1:0.391304 2:0.351351 3:0.1 4:0.465151 5:0.630435 6:0.612245 
-1 1:0.391304 2:0.337838 3:0.3 4:0.465151 5:0.608696 6:0.612245 
-1 1:0.434783 2:0.27027 3:0.3 4:0.465151 5:0.586957 6:0.571429 
-1 1:0.434783 2:0.256757 3:0.1 4:0.441877 5:0.586957 6:0.55102 
-1 1:0.434783 2:0.418919 3:0.3 4:0.465151 5:0.608696 6:0.530612 
-1 1:0.434783 2:0.418919 3:0.1 4:0.441877 5:0.565217 6:0.530612 
-1 1:0.434783 2:0.351351 3:0.1 4:0.441877 5:0.586957 6:0.530612 
-1 1:0.434783 2:0.378378 3:0.3 4:0.441877 5:0.543478 6:0.510204 
-1 1:0.434783 2:0.486486 3:0.3 4:0.441877 5:0.565217 6:0.530612 
-1 1:0.434783 2:0.391892 3:0.6 4:0.465151 5:0.565217 6:0.55102 
-1 1:0.434783 2:0.391892 3:0.6 4:0.488384 5:0.586957 6:0.55102 
-1 1:0.434783 2:0.351351 3:0.4 4:0.488384 5:0.5 6:0.55102 
-1 2:0.310811 3:0.1 4:0.372096 5:0.413043 6:0.55102 
-1 2:0.27027 3:0.3 4:0.372096 5:0.391304 6:0.55102 
-1 2:0.27027 3:0.1 4:0.372096 5:0.434783 6:0.55102 
-1 2:0.216216 3:0.1 4:0.348863 5:0.413043 6:0.530612 
-1 2:0.378378 3:0.1 4:0.325589 5:0.391304 6:0.530612 
-1 2:0.459459 3:0.1 4:0.325589 5:0.413043 6:0.530612 
-1 2:0.459459 3:0.1 4:0.325589 5:0.369565 6:0.489796 
-1 2:0.378378 3:0.1 4:0.302357 5:0.326087 6:0.469388 
-1 2:0.445946 3:0.3 4:0.302357 5:0.326087 6:0.44898 
-1 2:0.418919 3:0.4 4:0.302357 5:0.304348 6:0.367347 
-0.060103132726353696 1:0.0434783 2:0.432432 3:0.1 4:0.302357 5:0.369565 6:0.204082 
-1 1:0.0434783 2:0.513514 3:0.3 4:0.325589 5:0.326087 6:0.204082 
-1 1:0.0434783 2:0.513514 3:0.1 4:0.418603 5:0.326087 6:0.265306 
-1 1:0.0434783 2:0.513514 3:0.1 4:0.418603 5:0.326087 6:0.326531 
-1 1:0.0434783 2:0.5 3:0.1 4:0.418603 5:0.326087 6:0.387755 
-1 1:0.0434783 2:0.608108 3:0.3 4:0.418603 5:0.347826 6:0.367347 
-1 1:0.0434783 2:0.608108 3:0.1 4:0.441877 5:0.391304 6:0.387755 
-1 1:0.0869565 2:0.459459 3:0.1 4:0.441877 5:0.413043 6:0.489796 
-1 1:0.0869565 2:0.459459 3:0.3 4:0.418603 5:0.369565 6:0.44898 
-1 1:0.0869565 2:0.5 3:0.1 4:0.418603 5:0.391304 6:0.387755 
-1 1:0.0869565 2:0.5 3:0.1 4:0.39537 5:0.434783 6:0.408163 
-1 1:0.0869565 2:0.351351 3:0.1 4:0.372096 5:0.456522 6:0.367347 
-1 1:0.0869565 2:0.351351 3:0.1 4:0.302357 5:0.434783 6:0.285714 
-1 1:0.0869565 2:0.459459 3:0.1 4:0.25585 5:0.478261 6:0.22449 
-1 1:0.0869565 2:0.459459 3:0.4 4:0.279082 5:0.5 6:0.204082 
-1 1:0.0869565 2:0.527027 3:0.6 4:0.325589 5:0.543478 6:0.244898 
-1 1:0.0869565 2:0.527027 3:0.1 4:0.325589 5:0.543478 6:0.244898 
-1 1:0.0869565 2:0.486486 3:0.1 4:0.279082 5:0.478261 6:0.265306 
-1 1:0.130435 2:0.594595 3:0.1 4:0.25585 5:0.478261 6:0.326531 
-1 1:0.130435 2:0.486486 3:0.1 4:0.209301 5:0.521739 6:0.408163 
-1 1:0.130435 2:0.756757 3:0.1 4:0.232576 5:0.543478 6:0.428571 
-1 1:0.130435 2:0.756757 3:0.1 4:0.279082 5:0.543478 6:0.44898 
-1 1:0.130435 2:0.540541 3:0.3 4:0.302357 5:0.608696 6:0.55102 
-1 1:0.130435 2:0.635135 3:0.4 4:0.372096 5:0.586957 6:0.55102 
-1 1:0.130435 2:0.635135 3:0.1 4:0.325589 5:0.608696 6:0.571429 
-1 1:0.130435 2:0.810811 3:0.1 4:0.302357 5:0.630435 6:0.571429 
-1 1:0.130435 2:0.837838 3:0.1 4:0.348863 5:0.695652 6:0.510204 
-1 1:0.130435 2:0.675676 3:0.1 4:0.39537 5:0.630435 6:0.55102 
-1 1:0.130435 2:0.675676 3:0.1 4:0.418603 5:0.695652 6:0.530612 
-1 1:0.173913 2:0.594595 3:0.1 4:0.39537 5:0.673913 6:0.591837 
-1 1:0.173913 2:0.594595 3:0.1 4:0.372096 5:0.76087 6:0.571429 
-1 1:0.173913 2:0.594595 3:0.3 4:0.348863 5:0.695652 6:0.591837 
-1 1:0.173913 2:0.756757 3:0.1 4:0.418603 5:0.717391 6:0.55102 
-1 1:0.173913 2:0.810811 3:0.1 4:0.39537 5:0.891304 6:0.55102 
-1 1:0.173913 2:0.810811 3:0.1 4:0.418603 5:0.847826 6:0.571429 
-1 1:0.173913 2:0.702703 3:0.1 4:0.39537 5:0.826087 6:0.591837 
-1 1:0.173913 2:0.810811 3:0.1 4:0.372096 5:0.847826 6:0.612245 
-1 1:0.173913 2:0.810811 3:0.3 4:0.418603 5:0.804348 6:0.571429 
-1 1:0.173913 2:0.716216 3:0.1 4:0.418603 5:0.869565 6:0.571429 
-1 1:0.173913 2:0.378378 3:0.3 4:0.39537 5:0.891304 6:0.571429 
-1 1:0.217391 2:0.675676 3:0.1 4:0.488384 5:0.847826 6:0.510204 
-1 1:0.217391 2:0.675676 3:0.1 4:0.488384 5:0.934783 6:0.489796 
-1 1:0.217391 2:0.608108 3:0.3 4:0.441877 5:0.891304 6:0.489796 
-1 1:0.217391 2:0.378378 3:0.1 4:0.488384 5:0.869565 6:0.469388 
-1 1:0.217391 2:0.418919 3:0.1 4:0.511658 5:0.934783 6:0.408163 
-1 1:0.217391 2:0.418919 3:0.1 4:0.534891 5:0.913043 6:0.346939 
-1 1:0.217391 2:0.391892 3:0.1 4:0.534891 5:0.978261 6:0.367347 
-1 1:0.217391 2:0.635135 3:0.1 4:0.511658 5:0.913043 6:0.408163 
-1 1:0.217391 2:0.635135 3:0.1 4:0.488384 5:1 6:0.428571 
-1 1:0.217391 2:0.5 3:0.1 4:0.534891 5:0.956522 6:0.408163 
-1 1:0.217391 2:0.5 3:0.1 4:0.534891 5:0.913043 6:0.408163 
-1 1:0.26087 2:0.635135 3:0.1 4:0.418603 5:0.847826 6:0.489796 
-1 1:0.26087 2:0.635135 3:0.1 4:0.441877 5:0.956522 6:0.510204 
-1 1:0.26087 2:0.783784 3:0.1 4:0.441877 5:0.956522 6:0.489796 
-1 1:0.26087 2:0.783784 3:0.1 4:0.418603 5:0.695652 6:0.530612 
-1 1:0.26087 2:0.594595 3:0.3 4:0.418603 5:0.891304 6:0.530612 
-1 1:0.26087 2:0.797297 3:0.3 4:0.39537 5:0.847826 6:0.55102 
-1 1:0.26087 2:0.797297 3:0.1 4:0.441877 5:0.847826 6:0.469388 
-1 1:0.26087 2:0.540541 3:0.1 4:0.558165 5:0.847826 6:0.408163 
-1 1:0.26087 2:0.540541 3:0.1 4:0.581397 5:0.847826 6:0.367347 
-1 1:0.26087 2:0.459459 3:0.1 4:0.581397 5:0.891304 6:0.367347 
-1 1:0.304348 2:0.445946 3:0.1 4:0.651178 5:0.934783 6:0.285714 
-1 1:0.304348 2:0.418919 3:0.1 4:0.627904 5:0.847826 6:0.285714 
-1 1:0.304348 2:0.418919 3:0.1 4:0.511658 5:0.891304 6:0.408163 
-1 1:0.304348 2:0.540541 3:0.1 4:0.488384 5:0.826087 6:0.44898 
-1 1:0.304348 2:0.540541 3:0.1 4:0.441877 5:0.804348 6:0.469388 
-1 1:0.304348 2:0.72973 3:0.1 4:0.441877 5:0.782609 6:0.510204 
-1 1:0.304348 2:0.72973 3:0.1 4:0.441877 5:0.76087 6:0.510204 
-1 1:0.304348 2:0.608108 3:0.3 4:0.418603 5:0.73913 6:0.489796 
-1 1:0.304348 2:0.851351 3:0.1 4:0.441877 5:0.717391 6:0.489796 
-1 1:0.304348 2:0.851351 3:0.3 4:0.465151 5:0.717391 6:0.469388 
-1 1:0.304348 2:0.756757 3:0.1 4:0.418603 5:0.73913 6:0.489796 
-1 1:0.347826 2:0.824324 3:0.1 4:0.348863 5:0.847826 6:0.571429 
-1 1:0.347826 2:0.824324 3:0.1 4:0.39537 5:0.652174 6:0.55102 
-1 1:0.347826 2:0.702703 3:0.1 4:0.465151 5:0.673913 6:0.469388 
-1 1:0.347826 2:0.702703 3:0.1 4:0.511658 5:0.782609 6:0.428571 
-1 1:0.347826 2:0.702703 3:0.1 4:0.534891 5:0.652174 6:0.346939 
-1 1:0.347826 2:0.702703 3:0.1 4:0.465151 5:0.73913 6:0.428571 
-1 1:0.347826 2:0.851351 3:0.1 4:0.418603 5:0.652174 6:0.510204 
-1 1:0.347826 2:0.851351 3:0.1 4:0.418603 5:0.695652 6:0.489796 
-1 1:0.347826 2:0.689189 3:0.1 4:0.418603 5:0.673913 6:0.489796 
-1 1:0.347826 2:0.824324 3:0.1 4:0.465151 5:0.608696 6:0.489796 
-1 1:0.347826 2:0.824324 3:0.1 4:0.465151 5:0.652174 6:0.469388 
-1 1:0.391304 2:0.837838 3:0.3 4:0.534891 5:0.543478 6:0.428571 
-1 1:0.391304 2:0.837838 3:0.3 4:0.488384 5:0.543478 6:0.44898 
-1 1:0.391304 2:0.689189 3:0.1 4:0.465151 5:0.608696 6:0.469388 
-1 1:0.391304 2:0.689189 3:0.1 4:0.441877 5:0.608696 6:0.489796 
-1 1:0.391304 2:0.513514 3:0.1 4:0.465151 5:0.695652 6:0.469388 
-1 1:0.391304 2:0.527027 3:0.1 4:0.488384 5:0.630435 6:0.44898 
-1 1:0.391304 2:0.689189 3:0.3 4:0.465151 5:0.630435 6:0.469388 
-1 1:0.391304 2:0.77027 3:0.1 4:0.465151 5:0.673913 6:0.469388 
-1 1:0.391304 2:0.77027 3:0.1 4:0.465151 5:0.652174 6:0.44898 
-1 1:0.391304 2:0.743243 3:0.1 4:0.511658 5:0.586957 6:0.428571 
-1 1:0.391304 2:0.635135 3:0.3 4:0.511658 5:0.586957 6:0.428571 
-1 1:0.434783 2:0.5 3:0.3 4:0.558165 5:0.630435 6:0.428571 
-1 1:0.434783 2:0.5 3:0.1 4:0.558165 5:0.586957 6:0.44898 
-1 1:0.434783 2:0.5 3:0.4 4:0.558165 5:0.565217 6:0.489796 
-1 1:0.434783 2:0.527027 3:0.1 4:0.581397 5:0.586957 6:0.469388 
-0.020801828722364427 1:0.434783 2:0.581081 3:0.1 4:0.558165 5:0.521739 6:0.510204 
-1 1:0.434783 2:0.581081 3:0.4 4:0.558165 5:0.5 6:0.530612 
-1 2:0.405405 3:0.1 4:0.348863 5:0.413043 6:0.510204 
-1 2:0.364865 3:0.1 4:0.372096 5:0.413043 6:0.510204 
-1 2:0.513514 3:0.1 4:0.372096 5:0.434783 6:0.489796 
-1 2:0.527027 3:0.3 4:0.372096 5:0.391304 6:0.489796 
-1 2:0.540541 3:0.1 4:0.348863 5:0.369565 6:0.469388 
-1 2:0.540541 3:0.1 4:0.372096 5:0.347826 6:0.44898 
-1 2:0.648649 3:0.1 4:0.372096 5:0.326087 6:0.428571 
-1 2:0.621622 3:0.1 4:0.348863 5:0.304348 6:0.387755 
-1 2:0.621622 3:0.1 4:0.348863 5:0.304348 6:0.367347 
-1 2:0.621622 3:0.1 4:0.372096 5:0.282609 6:0.346939 
-1 1:0.0434783 2:0.554054 3:0.4 4:0.372096 5:0.369565 6:0.306122 
-1 1:0.0434783 2:0.554054 3:0.4 4:0.372096 5:0.369565 6:0.306122 
-1 1:0.0434783 2:0.594595 3:0.1 4:0.372096 5:0.369565 6:0.265306 
-1 1:0.0434783 2:0.608108 3:0.1 4:0.348863 5:0.347826 6:0.22449 
-1 1:0.0434783 2:0.797297 3:0.1 4:0.348863 5:0.391304 6:0.22449 
-1 1:0.0434783 2:0.797297 3:0.1 4:0.372096 5:0.369565 6:0.22449 
-1 1:0.0434783 2:0.689189 3:0.1 4:0.348863 5:0.413043 6:0.22449 
-1 1:0.0434783 2:0.648649 3:0.3 4:0.372096 5:0.391304 6:0.22449 
-1 1:0.0434783 2:0.648649 3:0.3 4:0.348863 5:0.391304 6:0.244898 
-1 1:0.0434783 2:0.486486 3:0.1 4:0.348863 5:0.391304 6:0.244898 
-1 1:0.0869565 2:0.513514 3:0.1 4:0.325589 5:0.456522 6:0.244898 
-1 1:0.173913 2:0.5 3:0.1 4:0.511658 5:0.717391 6:0.469388 
-1 1:0.173913 2:0.689189 3:0.1 4:0.418603 5:0.695652 6:0.489796 
-1 1:0.173913 2:0.689189 3:0.1 4:0.348863 5:0.695652 6:0.55102 
-1 1:0.173913 2:0.594595 3:0.1 4:0.302357 5:0.782609 6:0.55102 
-1 1:0.173913 2:0.675676 3:0.1 4:0.302357 5:0.76087 6:0.530612 
-1 1:0.173913 2:0.824324 3:0.1 4:0.39537 5:0.73913 6:0.489796 
-1 1:0.173913 2:0.824324 3:0.4 4:0.348863 5:0.76087 6:0.489796 
-1 1:0.173913 2:0.77027 3:0.1 4:0.302357 5:0.804348 6:0.489796 
-1 1:0.173913 2:0.675676 3:0.1 4:0.209301 5:0.782609 6:0.44898 
-1 1:0.173913 2:0.689189 3:0.1 4:0.325589 5:0.76087 6:0.510204 
-1 1:0.173913 2:0.837838 3:0.1 4:0.465151 5:0.695652 6:0.489796 
-1 1:0.217391 2:0.594595 3:0.1 4:0.790699 5:0.673913 6:0.938776 
-1 1:0.217391 2:0.472973 3:0.1 4:0.837205 5:0.695652 6:0.897959 
-1 1:0.217391 2:0.297297 3:0.1 4:0.837205 5:0.695652 6:0.918367 
-1 1:0.217391 2:0.297297 3:0.1 4:0.813973 5:0.782609 6:0.938776 
-1 1:0.217391 2:0.297297 3:0.6 4:0.720959 5:0.76087 6:0.979592 
-1 1:0.217391 2:0.243243 3:0.1 4:0.720959 5:0.804348 6:1 
-1 1:0.217391 2:0.27027 3:0.1 4:0.720959 5:0.826087 6:0.979592 
-1 1:0.217391 2:0.27027 3:0.4 4:0.790699 5:0.847826 6:0.918367 
-1 1:0.217391 2:0.27027 3:0.1 4:0.720959 5:0.804348 6:0.938776 
-1 1:0.217391 2:0.216216 3:0.1 4:0.581397 5:0.826087 6:0.979592 
-1 1:0.26087 2:0.297297 3:0.1 4:0.279082 5:0.869565 6:0.367347 
-1 1:0.26087 2:0.297297 3:0.1 4:0.209301 5:0.847826 6:0.428571 
-1 1:0.26087 2:0.243243 3:0.4 4:0.186069 5:0.891304 6:0.244898 
-1 1:0.26087 2:0.162162 3:0.1 4:0.162795 5:0.826087 6:0.285714 
-1 1:0.26087 2:0.243243 3:0.4 4:0.139562 5:0.76087 6:0.102041 
-1 1:0.26087 2:0.432432 3:0.1 4:0.162795 5:0.847826 
-1 1:0.26087 2:0.459459 3:0.1 4:0.186069 5:0.891304 
-1 1:0.26087 2:0.702703 3:0.1 4:0.186069 5:0.847826 6:0.0204082 
-1 1:0.26087 2:0.702703 3:0.3 4:0.232576 5:0.826087 
-1 1:0.26087 2:0.702703 3:0.3 4:0.25585 5:0.869565 6:0.0204082 
-1 1:0.26087 2:0.432432 3:0.3 4:0.302357 5:0.956522 6:0.0408163 
-1 1:0.304348 2:0.608108 3:0.3 4:0.348863 5:0.934783 6:0.102041 
-1 1:0.304348 2:0.608108 3:0.1 4:0.39537 5:0.869565 6:0.265306 
-1 1:0.304348 2:0.702703 3:0.1 4:0.441877 5:0.804348 6:0.204082 
-1 1:0.304348 2:0.702703 3:0.1 4:0.488384 5:0.826087 6:0.367347 
-1 1:0.304348 2:0.648649 3:0.3 4:0.488384 5:0.869565 6:0.44898 
-1 1:0.304348 2:0.581081 3:0.1 4:0.511658 5:0.869565 6:0.44898 
-1 1:0.304348 2:0.581081 3:0.1 4:0.511658 5:0.826087 6:0.44898 
-1 1:0.304348 2:0.459459 3:0.1 4:0.488384 5:0.76087 6:0.469388 
-1 1:0.304348 2:0.540541 3:0.1 4:0.488384 5:0.782609 6:0.469388 
-1 1:0.304348 2:0.540541 3:0.1 4:0.465151 5:0.73913 6:0.469388 
-1 1:0.304348 2:0.540541 3:0.1 4:0.488384 5:0.73913 6:0.44898 
-1 1:0.347826 2:0.540541 3:0.1 4:0.465151 5:0.673913 6:0.469388 
-1 1:0.347826 2:0.472973 3:0.1 4:0.465151 5:0.630435 6:0.469388 
-1 1:0.347826 2:0.648649 3:0.3 4:0.488384 5:0.652174 6:0.489796 
-1 1:0.347826 2:0.662162 3:0.1 4:0.511658 5:0.652174 6:0.469388 
-1 1:0.347826 2:0.567568 3:0.1 4:0.488384 5:0.630435 6:0.489796 
-1 1:0.347826 2:0.513514 3:0.3 4:0.488384 5:0.565217 6:0.489796 
-1 1:0.347826 2:0.432432 3:0.1 4:0.465151 5:0.565217 6:0.469388 
-1 1:0.347826 2:0.405405 3:0.3 4:0.465151 5:0.608696 6:0.489796 
-1 1:0.347826 2:0.540541 3:0.1 4:0.488384 5:0.586957 6:0.469388 
-1 1:0.347826 2:0.540541 3:0.3 4:0.488384 5:0.543478 6:0.489796 
-1 1:0.347826 2:0.540541 3:0.1 4:0.488384 5:0.608696 6:0.469388 
-1 1:0.391304 2:0.648649 3:0.1 4:0.511658 5:0.630435 6:0.489796 
-1 1:0.391304 2:0.608108 3:0.4 4:0.488384 5:0.695652 6:0.510204 
-1 1:0.391304 2:0.594595 3:0.3 4:0.465151 5:0.608696 6:0.530612 
-1 1:0.391304 2:0.594595 3:0.4 4:0.465151 5:0.565217 6:0.510204 
-1 1:0.391304 2:0.594595 3:0.3 4:0.465151 5:0.521739 6:0.510204 
-1 1:0.391304 2:0.635135 3:0.1 4:0.488384 5:0.565217 6:0.489796 
-1 2:0.189189 3:0.1 4:0.441877 5:0.326087 6:0.469388 
-1 2:0.189189 3:0.1 4:0.441877 5:0.326087 6:0.469388 
-1 2:0.243243 3:0.1 4:0.441877 5:0.304348 6:0.469388 
-0.40041398674875661 2:0.256757 3:0.1 4:0.39537 5:0.26087 6:0.530612 
-1 1:0.0869565 2:0.378378 3:0.1 4:0.279082 5:0.456522 6:0.183673 
-1 1:0.0869565 2:0.459459 3:0.1 4:0.348863 5:0.456522 6:0.22449 
-1 1:0.304348 2:0.297297 3:0.1 4:0.581397 5:0.673913 6:0.367347 
-1 1:0.304348 2:0.202703 3:0.4 4:0.534891 5:0.630435 6:0.367347 
-1 1:0.304348 2:0.297297 3:0.1 4:0.488384 5:0.652174 6:0.387755 
-1 1:0.304348 2:0.297297 3:0.1 4:0.465151 5:0.565217 6:0.408163 
-1 1:0.304348 2:0.243243 3:0.1 4:0.441877 5:0.565217 6:0.428571 
-1 1:0.304348 2:0.216216 3:0.1 4:0.441877 5:0.5 6:0.44898 
-1 1:0.304348 2:0.121622 3:0.3 4:0.418603 5:0.456522 6:0.44898 
-1 1:0.304348 2:0.121622 3:0.4 4:0.418603 5:0.521739 6:0.469388 
-1 1:0.304348 2:0.0945946 3:0.1 4:0.418603 5:0.608696 6:0.469388 
-1 1:0.347826 2:0.135135 3:0.1 4:0.39537 5:0.652174 6:0.489796 
-1 1:0.347826 2:0.0945946 3:0.3 4:0.418603 5:0.630435 6:0.489796 
-1 1:0.347826 2:0.0810811 3:0.1 4:0.39537 5:0.847826 6:0.489796 
-1 1:0.391304 2:0.135135 3:0.6 4:0.441877 5:0.630435 6:0.510204 
-1 1:0.391304 2:0.0540541 3:0.6 4:0.441877 5:0.586957 6:0.510204 
-1 1:0.391304 2:0.0810811 3:0.6 4:0.441877 5:0.521739 6:0.510204 
-1 1:0.434783 2:0.108108 3:0.6 4:0.441877 5:0.5 6:0.489796 
-0.71707240744140865 1:0.434783 2:0.0675676 3:0.6 4:0.441877 5:0.478261 6:0.489796 
-1 1:0.73913 2:0.0540541 3:0.4 4:0.441877 5:0.804348 6:0.489796 
-1 1:0.73913 2:0.0675676 3:0.3 4:0.418603 5:0.804348 6:0.510204 
-1 1:0.782609 2:0.0810811 3:0.4 4:0.418603 5:0.826087 6:0.510204 
-1 1:0.782609 2:0.0810811 3:0.4 4:0.418603 5:0.826087 6:0.510204 
-1 1:0.782609 2:0.0405405 3:0.7 4:0.441877 5:0.782609 6:0.510204 
-1 1:0.782609 3:0.9 4:0.441877 5:0.76087 6:0.510204 
-1 1:0.782609 2:0.0405405 3:0.7 4:0.441877 5:0.782609 6:0.510204 
