 4.32716237076952130 -0.29973876934337196 0.39233187284977783 -4.11315700133331320 -4.35437263672663910 2.30859129227521190 -0.15918867879330673 -2.28927223690577990 0.06690534330233343 8.92256946638805460 -0.48340659628957378 -1.36964133524571750 0.85474562936399856 -2.90968848219054890 -4.37909923566073460 -2.88772103155532500 10.22574434220465600 -6.46817644142791790 1.05492821122124970 -6.16581716426753700 -2.07203666559485060 -1.59864087049456180 1.88473970420971870 1.92254444074462150 0.00759140930921655 0.94226347603351868 0.37970139289695293 0.74843935811529660 0.96691355317199446 0.71317218561781148 0.51440702004769234 0.81120988683937456 0.88888016811527548 0.19155109117383923 0.44103691460163830 0.32412375024915907 0.37841986746240464 0.23970797794769949 0.78065689468454491 0.97048986121744107 4.34743249353798600 -0.17029028883600200 -0.01839125592250485 -3.82900701065564150 -3.50460996555139200 1.95946258022194560 -0.30764859660278310 -1.43766597334804520 -0.89645195340180384 -0.30357427234764539 7.22593947810672520 0.11126475990883394 -0.54847466207794682 -0.02371967252093238 -3.70000622733560560 -3.18505523023781790 4.34050767200804350 -2.69296942204077670 4.44766923094068820 -7.81247881829298850 -0.40414529466968763 -3.67936881943618350 4.78053735977039730 -2.73805412259880750 1.21553769224666610 3.06889899823676070 -2.71528006032497960 -10.39759810129712400 -11.49174998553405700 3.62289119100383860 2.78109221137247030 9.02451198588786770 3.01560417802505270 -0.55572083481930690 -2.48301937572213840 -2.87156190300828800 -3.27781239457229030 4.42498367709068050 2.24929592179948480 -1.79242503123903570 0.55059903004252186 0.82726322365991678 0.67834233481900752 0.52337545660347096 0.34418604904694472 0.47886222607095430 1.20242766713536240 0.56006563172193591 0.27204891876609977 0.70719447263711854 0.52092260341490559 0.72199084714653772 0.85255162855113886 0.19283979405136689 0.35713551547168770 0.79550490774123972 0.65930045959136674 0.91892109874154859 0.69531203123727214 1.07354843953780990 0.30766261562510994 0.47845958210051648 0.43898949988833846 0.82454279190827862 0.04374865587565374 0.70034120446903247 0.98049175318676884 0.51724868608475905 0.82036908575676393 0.83405001297799197 0.94610018802345763 0.88579760845421529 -3.94770336325743320 3.12353622220482000 -2.31007610507650220 -13.08939625197387200 -25.30971951535549300 7.21129883283221580 -1.70976133335018890 27.63584589064714000 1.81884241120904040 -3.00401577562860660 0.96497640116021477 0.96026850577514711 5.15543622703776450 2.42148339505898180 -4.73068641139184360 2.85945449216119620 -1.28073321800258340 -0.24976827484730132 -2.15949295205608300 0.11130387743502140 -0.78106329573641065 0.97269940728088433 -0.55884416334188924 -1.09858572648273900 0.64358793794688873 0.47439293222245715 0.55842566329904941 0.29745606771402278 0.24785852196923375 0.05381779798336085 0.87512735381091411 1.00942781716368010 0.15010165771731726 0.77571607070977577 0.56850876507900727 0.40741464222026536 1.08287815724326260 0.82558469056350448 0.74226429321650056 0.51653979960058538 0.94020692692916930 0.41703747445161554 0.67708898673530593 0.89462346401576431 0.63210475789599108 0.41108423178644038 0.35581932061491345 0.62746178881944348 18.45512849510905400 1.91359787137895100 -4.35793890074428440 14.91680658032340300 8.74657870194597290 10.30156230251894900 2.63408458495511330 3.51105549311545100 0.25862017388504377 0.73925418459659331 0.77278740458325135 0.39948218438807676 0.80095208045387145 0.35182682583429664 0.68528068779817175 0.25340478172112157 0.66187197753762983 0.13750743549671593 0.19967859794326850 0.10454372590720602 0.98792825278595875 0.76276129779670965 0.88428861570883099 0.56400634091854152 3.41085136608605750 -8.38004608122447790 -12.43145584962126500 -17.28501089243324200 -36.63657879051263700 48.05218694245041900 26.38159403876452900 14.55608124312129100 -2.10200437940123710 -11.06638577182374300 0.25678624290436647 2.38475291509334710 3.24056973256824320 -1.09952563749612240 -2.65403670075094710 2.59029680838021510 0.22657678002742429 1.00438380049978120 0.23218993570421281 0.51635018875229333 0.38574395474287121 0.68855760364380592 0.28289917011450194 0.89131321987447076 0.22498744592653450 0.89969378049099757 0.17330062247088179 0.62102870318582670 0.15425338878700046 0.56750430268991647 0.88485063125052554 0.70266361308907122 0.84997990304416182 0.30654145247018361 0.75879684818474280 0.93380743880513939 0.32474560193820989 0.55101519054864423 0.95702693687237883 0.85792815284287005 13.17289557697395500 0.83628593665705131 -5.30781317196592270 13.36755811903063300 8.44095523222594760 16.05314407016354000 7.12630068195700160 7.99351063795384850 0.88298380165273782 0.16850994030230668 0.49032972055223395 0.71786157286094221 1.07154761064229700 0.57456845206446294 0.10770635165626044 0.89503697714967001 0.18744063454552046 0.32019158887699900 0.30735311995295111 0.61717042636619823 0.99558942975589859 0.51221234498233870 0.80590344545974701 0.20405586783498325 -11.06903756468433300 29.68816127529823100 -2.93974942433400790 -17.27861806540210000 -7.26599252878960660 16.41440034069892600 8.32479059680096260 3.51868094781459060 1.17346102548361130 2.90750469704390110 -6.01423949807150390 0.65584676929187646 0.18737074701710271 4.88466501202844410 -4.46573766384882110 12.61876555050039200 4.96637488478245000 6.92564160923110530 0.37230690316307191 0.20827332073071383 0.11707501153540649 -0.00547364662611293 5.58576592731131690 -3.30791273636878680 2.68520923431229400 0.12599217442306704 0.42290251567895637 0.43925846620004705 -6.07365124106522190 0.72223917363780066 0.43751197158563659 4.00961201357467710 -10.21936492381129100 0.40884204467779683 0.26757543588039734 0.46613541534515684 4.77835371622311470 0.07778433676030232 0.62257834139173218 3.36400410483776780